digraph Tree {
node [shape=box, style="filled, rounded", color="black", fontname=helvetica] ;
edge [fontname=helvetica] ;
0 [label="X[1] <= 44.5\nentropy = 0.8\nsamples = 15556\nvalue = [11747, 3809]", fillcolor="#edaa79"] ;
1 [label="X[0] <= 10.5\nentropy = 1.0\nsamples = 3796\nvalue = [1814, 1982]", fillcolor="#eef7fd"] ;
0 -> 1 [labeldistance=2.5, labelangle=45, headlabel="True"] ;
2 [label="X[0] <= 8.36\nentropy = 0.98\nsamples = 2564\nvalue = [1502, 1062]", fillcolor="#f7dac5"] ;
1 -> 2 ;
3 [label="X[1] <= 39.5\nentropy = 0.93\nsamples = 1570\nvalue = [1032, 538]", fillcolor="#f3c3a0"] ;
2 -> 3 ;
4 [label="X[0] <= 5.5\nentropy = 0.97\nsamples = 936\nvalue = [556, 380]", fillcolor="#f7d7c0"] ;
3 -> 4 ;
5 [label="entropy = 0.87\nsamples = 242\nvalue = [171, 71]", fillcolor="#f0b58b"] ;
4 -> 5 ;
6 [label="entropy = 0.99\nsamples = 694\nvalue = [385, 309]", fillcolor="#fae6d8"] ;
4 -> 6 ;
7 [label="X[0] <= 2.5\nentropy = 0.81\nsamples = 634\nvalue = [476, 158]", fillcolor="#eeab7b"] ;
3 -> 7 ;
8 [label="entropy = 0.0\nsamples = 18\nvalue = [18, 0]", fillcolor="#e58139"] ;
7 -> 8 ;
9 [label="entropy = 0.82\nsamples = 616\nvalue = [458, 158]", fillcolor="#eeac7d"] ;
7 -> 9 ;
10 [label="X[1] <= 39.5\nentropy = 1.0\nsamples = 994\nvalue = [470, 524]", fillcolor="#ebf5fc"] ;
2 -> 10 ;
11 [label="X[1] <= 19.5\nentropy = 0.98\nsamples = 635\nvalue = [264, 371]", fillcolor="#c6e3f8"] ;
10 -> 11 ;
12 [label="entropy = 0.0\nsamples = 5\nvalue = [5, 0]", fillcolor="#e58139"] ;
11 -> 12 ;
13 [label="entropy = 0.98\nsamples = 630\nvalue = [259, 371]", fillcolor="#c3e1f7"] ;
11 -> 13 ;
14 [label="X[0] <= 8.86\nentropy = 0.98\nsamples = 359\nvalue = [206, 153]", fillcolor="#f8dfcc"] ;
10 -> 14 ;
15 [label="entropy = 0.99\nsamples = 77\nvalue = [35, 42]", fillcolor="#deeffb"] ;
14 -> 15 ;
16 [label="entropy = 0.97\nsamples = 282\nvalue = [171, 111]", fillcolor="#f6d3ba"] ;
14 -> 16 ;
17 [label="X[0] <= 14.5\nentropy = 0.82\nsamples = 1232\nvalue = [312, 920]", fillcolor="#7cbeee"] ;
1 -> 17 ;
18 [label="X[1] <= 39.5\nentropy = 0.91\nsamples = 869\nvalue = [280, 589]", fillcolor="#97ccf1"] ;
17 -> 18 ;
19 [label="X[0] <= 11.5\nentropy = 0.82\nsamples = 545\nvalue = [138, 407]", fillcolor="#7cbeee"] ;
18 -> 19 ;
20 [label="entropy = 0.91\nsamples = 195\nvalue = [64, 131]", fillcolor="#9acdf2"] ;
19 -> 20 ;
21 [label="entropy = 0.74\nsamples = 350\nvalue = [74, 276]", fillcolor="#6eb7ec"] ;
19 -> 21 ;
22 [label="X[3] <= 21942.12\nentropy = 0.99\nsamples = 324\nvalue = [142, 182]", fillcolor="#d3e9f9"] ;
18 -> 22 ;
23 [label="entropy = 0.99\nsamples = 319\nvalue = [142, 177]", fillcolor="#d8ecfa"] ;
22 -> 23 ;
24 [label="entropy = 0.0\nsamples = 5\nvalue = [0, 5]", fillcolor="#399de5"] ;
22 -> 24 ;
25 [label="X[0] <= 18.5\nentropy = 0.43\nsamples = 363\nvalue = [32, 331]", fillcolor="#4ca6e8"] ;
17 -> 25 ;
26 [label="X[2] <= 51.5\nentropy = 0.56\nsamples = 245\nvalue = [32, 213]", fillcolor="#57ace9"] ;
25 -> 26 ;
27 [label="entropy = 0.62\nsamples = 202\nvalue = [31, 171]", fillcolor="#5dafea"] ;
26 -> 27 ;
28 [label="entropy = 0.16\nsamples = 43\nvalue = [1, 42]", fillcolor="#3e9fe6"] ;
26 -> 28 ;
29 [label="entropy = 0.0\nsamples = 118\nvalue = [0, 118]", fillcolor="#399de5"] ;
25 -> 29 ;
30 [label="X[0] <= 10.5\nentropy = 0.62\nsamples = 11760\nvalue = [9933, 1827]", fillcolor="#ea985d"] ;
0 -> 30 [labeldistance=2.5, labelangle=-45, headlabel="False"] ;
31 [label="X[0] <= 7.5\nentropy = 0.5\nsamples = 9146\nvalue = [8153, 993]", fillcolor="#e89051"] ;
30 -> 31 ;
32 [label="X[1] <= 45.5\nentropy = 0.36\nsamples = 4664\nvalue = [4340, 324]", fillcolor="#e78a48"] ;
31 -> 32 ;
33 [label="entropy = 0.0\nsamples = 154\nvalue = [154, 0]", fillcolor="#e58139"] ;
32 -> 33 ;
34 [label="X[0] <= 5.5\nentropy = 0.37\nsamples = 4510\nvalue = [4186, 324]", fillcolor="#e78b48"] ;
32 -> 34 ;
35 [label="entropy = 0.3\nsamples = 1908\nvalue = [1807, 101]", fillcolor="#e68844"] ;
34 -> 35 ;
36 [label="entropy = 0.42\nsamples = 2602\nvalue = [2379, 223]", fillcolor="#e78d4c"] ;
34 -> 36 ;
37 [label="X[1] <= 45.5\nentropy = 0.61\nsamples = 4482\nvalue = [3813, 669]", fillcolor="#ea975c"] ;
31 -> 37 ;
38 [label="entropy = 0.0\nsamples = 116\nvalue = [116, 0]", fillcolor="#e58139"] ;
37 -> 38 ;
39 [label="X[0] <= 8.36\nentropy = 0.62\nsamples = 4366\nvalue = [3697, 669]", fillcolor="#ea985d"] ;
37 -> 39 ;
40 [label="entropy = 0.54\nsamples = 1391\nvalue = [1217, 174]", fillcolor="#e99355"] ;
39 -> 40 ;
41 [label="entropy = 0.65\nsamples = 2975\nvalue = [2480, 495]", fillcolor="#ea9a61"] ;
39 -> 41 ;
42 [label="X[0] <= 14.5\nentropy = 0.9\nsamples = 2614\nvalue = [1780, 834]", fillcolor="#f1bc96"] ;
30 -> 42 ;
43 [label="X[0] <= 12.5\nentropy = 0.84\nsamples = 2178\nvalue = [1595, 583]", fillcolor="#efaf81"] ;
42 -> 43 ;
44 [label="X[1] <= 76.5\nentropy = 0.77\nsamples = 1492\nvalue = [1152, 340]", fillcolor="#eda673"] ;
43 -> 44 ;
45 [label="entropy = 0.76\nsamples = 1442\nvalue = [1122, 320]", fillcolor="#eca571"] ;
44 -> 45 ;
46 [label="entropy = 0.97\nsamples = 50\nvalue = [30, 20]", fillcolor="#f6d5bd"] ;
44 -> 46 ;
47 [label="X[3] <= 4033.78\nentropy = 0.94\nsamples = 686\nvalue = [443, 243]", fillcolor="#f3c6a6"] ;
43 -> 47 ;
48 [label="entropy = 0.97\nsamples = 401\nvalue = [239, 162]", fillcolor="#f7d6bf"] ;
47 -> 48 ;
49 [label="entropy = 0.86\nsamples = 285\nvalue = [204, 81]", fillcolor="#efb388"] ;
47 -> 49 ;
50 [label="X[0] <= 18.5\nentropy = 0.98\nsamples = 436\nvalue = [185, 251]", fillcolor="#cbe5f8"] ;
42 -> 50 ;
51 [label="X[0] <= 15.5\nentropy = 1.0\nsamples = 376\nvalue = [180, 196]", fillcolor="#eff7fd"] ;
50 -> 51 ;
52 [label="entropy = 0.99\nsamples = 177\nvalue = [98, 79]", fillcolor="#fae7d9"] ;
51 -> 52 ;
53 [label="entropy = 0.98\nsamples = 199\nvalue = [82, 117]", fillcolor="#c4e2f7"] ;
51 -> 53 ;
54 [label="X[0] <= 19.5\nentropy = 0.41\nsamples = 60\nvalue = [5, 55]", fillcolor="#4ba6e7"] ;
50 -> 54 ;
55 [label="entropy = 0.68\nsamples = 28\nvalue = [5, 23]", fillcolor="#64b2eb"] ;
54 -> 55 ;
56 [label="entropy = 0.0\nsamples = 32\nvalue = [0, 32]", fillcolor="#399de5"] ;
54 -> 56 ;
}