digraph Tree {
node [shape=box, style="filled, rounded", color="black", fontname=helvetica] ;
edge [fontname=helvetica] ;
0 [label="X[1] <= 44.5\ngini = 0.37\nsamples = 15556\nvalue = [11747, 3809]", fillcolor="#edaa79"] ;
1 [label="X[0] <= 10.5\ngini = 0.5\nsamples = 3796\nvalue = [1814, 1982]", fillcolor="#eef7fd"] ;
0 -> 1 [labeldistance=2.5, labelangle=45, headlabel="True"] ;
2 [label="X[0] <= 8.36\ngini = 0.49\nsamples = 2564\nvalue = [1502, 1062]", fillcolor="#f7dac5"] ;
1 -> 2 ;
3 [label="X[1] <= 39.5\ngini = 0.45\nsamples = 1570\nvalue = [1032, 538]", fillcolor="#f3c3a0"] ;
2 -> 3 ;
4 [label="gini = 0.48\nsamples = 936\nvalue = [556, 380]", fillcolor="#f7d7c0"] ;
3 -> 4 ;
5 [label="gini = 0.37\nsamples = 634\nvalue = [476, 158]", fillcolor="#eeab7b"] ;
3 -> 5 ;
6 [label="X[1] <= 39.5\ngini = 0.5\nsamples = 994\nvalue = [470, 524]", fillcolor="#ebf5fc"] ;
2 -> 6 ;
7 [label="gini = 0.49\nsamples = 635\nvalue = [264, 371]", fillcolor="#c6e3f8"] ;
6 -> 7 ;
8 [label="gini = 0.49\nsamples = 359\nvalue = [206, 153]", fillcolor="#f8dfcc"] ;
6 -> 8 ;
9 [label="X[0] <= 14.5\ngini = 0.38\nsamples = 1232\nvalue = [312, 920]", fillcolor="#7cbeee"] ;
1 -> 9 ;
10 [label="X[1] <= 39.5\ngini = 0.44\nsamples = 869\nvalue = [280, 589]", fillcolor="#97ccf1"] ;
9 -> 10 ;
11 [label="gini = 0.38\nsamples = 545\nvalue = [138, 407]", fillcolor="#7cbeee"] ;
10 -> 11 ;
12 [label="gini = 0.49\nsamples = 324\nvalue = [142, 182]", fillcolor="#d3e9f9"] ;
10 -> 12 ;
13 [label="X[0] <= 18.5\ngini = 0.16\nsamples = 363\nvalue = [32, 331]", fillcolor="#4ca6e8"] ;
9 -> 13 ;
14 [label="gini = 0.23\nsamples = 245\nvalue = [32, 213]", fillcolor="#57ace9"] ;
13 -> 14 ;
15 [label="gini = 0.0\nsamples = 118\nvalue = [0, 118]", fillcolor="#399de5"] ;
13 -> 15 ;
16 [label="X[0] <= 12.5\ngini = 0.26\nsamples = 11760\nvalue = [9933, 1827]", fillcolor="#ea985d"] ;
0 -> 16 [labeldistance=2.5, labelangle=-45, headlabel="False"] ;
17 [label="X[0] <= 8.36\ngini = 0.22\nsamples = 10638\nvalue = [9305, 1333]", fillcolor="#e99355"] ;
16 -> 17 ;
18 [label="X[0] <= 7.5\ngini = 0.15\nsamples = 6094\nvalue = [5596, 498]", fillcolor="#e78c4b"] ;
17 -> 18 ;
19 [label="gini = 0.13\nsamples = 4664\nvalue = [4340, 324]", fillcolor="#e78a48"] ;
18 -> 19 ;
20 [label="gini = 0.21\nsamples = 1430\nvalue = [1256, 174]", fillcolor="#e99254"] ;
18 -> 20 ;
21 [label="X[0] <= 10.5\ngini = 0.3\nsamples = 4544\nvalue = [3709, 835]", fillcolor="#eb9d66"] ;
17 -> 21 ;
22 [label="gini = 0.27\nsamples = 3052\nvalue = [2557, 495]", fillcolor="#ea995f"] ;
21 -> 22 ;
23 [label="gini = 0.35\nsamples = 1492\nvalue = [1152, 340]", fillcolor="#eda673"] ;
21 -> 23 ;
24 [label="X[0] <= 15.5\ngini = 0.49\nsamples = 1122\nvalue = [628, 494]", fillcolor="#f9e4d5"] ;
16 -> 24 ;
25 [label="X[4] <= 4.5\ngini = 0.47\nsamples = 863\nvalue = [541, 322]", fillcolor="#f4ccaf"] ;
24 -> 25 ;
26 [label="gini = 0.43\nsamples = 269\nvalue = [185, 84]", fillcolor="#f1ba93"] ;
25 -> 26 ;
27 [label="gini = 0.48\nsamples = 594\nvalue = [356, 238]", fillcolor="#f6d5bd"] ;
25 -> 27 ;
28 [label="X[0] <= 18.5\ngini = 0.45\nsamples = 259\nvalue = [87, 172]", fillcolor="#9dcff2"] ;
24 -> 28 ;
29 [label="gini = 0.48\nsamples = 199\nvalue = [82, 117]", fillcolor="#c4e2f7"] ;
28 -> 29 ;
30 [label="gini = 0.15\nsamples = 60\nvalue = [5, 55]", fillcolor="#4ba6e7"] ;
28 -> 30 ;
}